13.58125 -132.63062 132.37881 23.112839 -126.383736 133.13571 28.251099 -124.99516 100.402 24.08161 -117.3652 66.22101 4.0496616 -138.8775 131.62192 0.23452568 -138.74007 98.17506 -5.3290596 -132.84059 61.270473 13.521827 -134.26804 155.55287 13.462403 -135.90546 178.72693 9.692551 -150.77037 191.27429 11.69043 -149.34871 195.49792 -2.0005608 -136.79593 183.09383 -22.128881 -136.40717 169.76755 -20.713535 -148.55946 165.37274 31.082727 -132.82227 178.89136 39.769024 -132.96815 160.06041 33.652832 -148.96233 165.70284
12.727889 -132.6263 132.04404 22.110216 -125.14132 133.043 28.491661 -123.631386 100.746666 23.611568 -115.46519 66.446335 3.345562 -140.11127 131.04507 0.33357048 -140.19484 98.45005 -6.4589615 -134.78331 61.441105 13.0617695 -134.22302 155.37093 13.39565 -135.81976 178.69781 11.343073 -150.50247 193.35016 11.471621 -148.23312 197.24481 -3.1810513 -136.68246 182.64998 -23.710527 -137.40196 171.02525 -22.319832 -148.08368 173.59143 31.407333 -131.7147 178.97981 38.978767 -125.79074 159.3854 30.761913 -139.98499 157.97246
10.794632 -132.25948 131.4983 21.619139 -123.99871 132.20863 27.322931 -122.6711 100.35368 21.73864 -113.16531 66.887596 -0.029874802 -140.52025 130.78798 -5.5107822 -142.44492 99.2863 -15.479668 -136.80878 61.21798 12.114442 -134.00749 155.04886 13.434252 -135.75551 178.5994 8.970221 -150.51247 191.0329 11.557819 -149.60762 193.20663 0.8466015 -131.64517 182.14276 -19.123732 -126.26074 170.44086 -26.076178 -138.4295 172.12294 30.168356 -134.50854 178.07626 39.503716 -128.08585 158.0316 30.752981 -139.17212 152.41283
10.64558 -132.92831 131.26233 22.59285 -126.41908 131.74783 27.608017 -125.54319 99.38158 22.821213 -115.789764 66.17052 -1.3016891 -139.43755 130.77681 -6.7507076 -141.97539 98.75185 -15.21962 -135.92465 60.551193 12.060174 -134.31534 154.91222 13.474768 -135.70236 178.5621 8.553434 -150.89256 190.28236 10.4561405 -151.20259 191.91588 1.6776638 -133.20575 181.38538 -20.835962 -132.45515 172.93501 -24.111355 -146.07692 179.80232 30.895897 -134.13017 177.74142 39.2824 -127.50227 155.23593 34.739197 -139.8245 141.59995
10.148872 -131.27945 130.48773 23.070482 -125.76875 130.63824 26.014515 -122.72443 95.3681 21.943914 -112.48439 62.031166 -2.7727375 -136.79015 130.33722 -7.9011726 -137.95291 98.39397 -16.026028 -130.67633 60.2863 11.771166 -133.19446 154.4057 13.393459 -135.10948 178.32367 8.282505 -147.88733 192.39781 9.68269 -147.68652 193.06828 0.14638138 -130.93909 180.96179 -20.133986 -133.42221 171.85277 -17.108297 -150.28584 181.56532 31.060299 -133.01605 178.01868 39.820923 -123.14234 157.15298 36.60295 -131.62572 137.7981
9.994874 -129.85063 129.64362 21.92009 -126.90659 129.68892 23.955475 -123.40607 93.8499 21.398996 -114.69087 58.84958 -1.9303417 -132.79466 129.59831 -7.9994583 -131.95811 96.79185 -15.222647 -123.45603 58.65045 11.668128 -131.96013 153.91861 13.341382 -134.06963 178.19359 7.993664 -147.57152 193.70078 8.972528 -146.9103 193.89151 -0.4327469 -131.01866 179.02968 -20.978418 -131.13567 164.0403 -20.481087 -148.73557 176.72163 28.989405 -134.72737 177.63968 39.51541 -128.26933 154.99149 38.13591 -135.07222 135.10919
9.606742 -128.09483 129.53354 21.207176 -125.62602 128.71005 21.912779 -121.53219 92.42283 19.482794 -112.90022 57.4842 -1.9936924 -130.56364 130.35703 -8.923012 -128.98997 96.71457 -14.324694 -118.97175 59.332798 11.588736 -130.67195 153.81633 13.57073 -133.24907 178.09912 6.376873 -146.98395 192.57059 8.369534 -147.27374 193.30627 -0.93019485 -130.63109 180.32623 -20.895147 -128.96541 163.78905 -21.39845 -148.05768 173.74606 28.494879 -135.51125 177.72566 38.893707 -129.48825 155.73187 36.510696 -134.47052 136.40733
9.814532 -126.94994 130.03275 21.419197 -126.54544 129.01387 22.415405 -122.53309 92.69959 20.967287 -113.34762 58.030895 -1.7901325 -127.35445 131.05162 -8.673304 -123.75374 97.365135 -11.900894 -113.14042 61.02143 11.800745 -129.85077 153.99445 13.786957 -132.7516 177.95613 5.8091736 -144.79124 193.41405 8.4812355 -144.8384 193.3254 1.5175457 -127.537575 180.12776 -16.878653 -125.01048 163.50107 -20.716978 -143.05833 174.23268 28.671362 -136.28375 177.33575 41.12432 -130.61455 158.03694 37.53203 -133.97177 139.10844
10.611218 -129.73787 130.95563 22.036858 -128.87057 129.59917 20.943377 -125.417534 94.43483 20.120274 -115.491394 59.8793 -0.8144207 -130.60516 132.3121 -8.295193 -128.55577 98.279686 -8.954643 -119.284546 63.438305 12.37409 -131.20761 154.41109 14.136963 -132.67737 177.86655 5.991787 -145.78008 192.1099 9.423864 -145.58665 194.78519 2.5899143 -129.46056 179.84334 -11.705227 -127.06401 159.8954 -15.558693 -142.21861 163.19853 28.42197 -137.05096 177.02107 42.24054 -132.0915 158.44763 37.141655 -136.31255 144.41069
11.357505 -132.18994 131.80246 21.665737 -133.62257 130.1557 20.451761 -132.17978 95.19481 20.953733 -123.691696 60.02532 1.0492725 -130.75732 133.44922 -4.0324345 -128.16898 100.94873 -3.9668255 -119.80221 66.09905 12.984293 -132.56635 154.81108 14.611082 -132.94276 177.8197 6.4660473 -146.91315 191.71994 10.076693 -145.25546 192.7251 4.1086617 -126.75819 179.95894 -7.1664257 -121.06856 160.25389 -11.549459 -135.59377 165.03404 28.319386 -138.6417 177.71053 42.975594 -135.14896 159.53532 38.856895 -141.91681 144.7186
12.999535 -134.23166 132.69882 21.617596 -135.652 131.43723 20.703749 -134.85109 96.773125 23.388954 -126.61223 62.37913 4.3814735 -132.81133 133.96042 1.1558723 -131.89795 101.30044 3.6706867 -126.22501 67.70912 14.038863 -133.89294 155.25175 15.078192 -133.55421 177.80469 8.297817 -148.59215 191.7602 10.905987 -147.97017 192.82858 6.2466507 -125.81802 180.18552 -4.3982487 -117.10533 159.61342 -12.673916 -130.31587 161.72589 28.678001 -139.12004 177.65675 45.102455 -135.5089 159.43317 42.03971 -140.66876 149.75143
13.385303 -133.38522 133.82886 22.530563 -135.06563 132.8499 21.445847 -133.90929 99.88478 23.925596 -123.49438 66.6374 4.2400417 -131.70483 134.8078 1.0647392 -129.08388 103.46293 3.2331486 -122.579185 69.936005 14.540741 -134.02893 155.78987 15.69618 -134.67262 177.75089 8.770287 -149.60385 191.90808 11.837368 -148.78494 193.63257 5.4174423 -128.63216 179.63026 -2.304613 -119.229706 159.93756 -9.635208 -131.81642 156.31763 29.015064 -140.56529 177.63327 46.164623 -137.62817 160.51382 42.20302 -146.11584 150.27577
16.198257 -134.22205 134.42174 24.125038 -136.30989 133.45758 23.088045 -136.98592 100.9578 25.474476 -129.21765 67.81698 8.271479 -132.1342 135.3859 6.3980026 -128.34717 104.63631 8.956547 -121.7674 72.77877 16.211594 -134.88995 156.03668 16.224932 -135.55785 177.65161 12.996398 -149.31818 193.14688 13.054376 -149.30298 195.61276 2.4206104 -132.07509 178.87704 -4.8944683 -123.94516 159.25432 -6.2501984 -134.07497 152.65527 32.860397 -137.20978 177.69159 50.4954 -135.05264 162.13625 43.07951 -145.89372 154.42517
14.335016 -133.60446 131.92352 23.987808 -133.25864 130.54282 22.951937 -130.95602 97.7354 24.40443 -120.78888 64.31671 4.6822243 -133.95027 133.30423 2.2700348 -129.25397 101.83873 2.5970325 -119.75047 68.15413 15.570277 -134.53107 154.77676 16.805538 -135.45769 177.63 14.545571 -149.48894 194.92737 14.508662 -147.99135 197.41782 0.7216034 -133.09703 178.60353 -8.49799 -127.338295 158.51927 -6.3549976 -142.25876 148.18877 36.094093 -136.84605 178.57861 55.218136 -142.18515 163.38141 48.87097 -157.36646 164.19197
16.157017 -134.74304 130.15906 26.548449 -134.69862 128.83403 24.137299 -131.93086 93.867676 26.293701 -122.21914 59.10401 5.765587 -134.78745 131.48409 5.0541115 -130.37625 97.741714 5.2717037 -121.094955 62.61357 16.701694 -134.77078 153.9201 17.246372 -134.79854 177.68114 17.05894 -148.615 195.41132 17.441448 -147.57008 197.0998 0.08452225 -135.38965 179.05463 -9.659973 -131.14877 160.27747 -2.9304028 -144.43016 149.21631 37.719185 -134.1206 177.47577 55.896324 -145.27551 161.5748 49.869354 -162.72514 168.28055
17.64217 -132.60693 130.15132 26.73979 -134.39874 128.7503 23.058516 -132.43329 94.118546 24.051117 -123.669975 58.76928 8.54455 -130.81511 131.55234 9.7215 -125.49998 96.353935 13.462205 -116.52157 60.52345 17.696554 -133.46281 153.93915 17.750938 -134.3187 177.72697 19.398632 -148.57266 195.8687 17.993061 -146.56345 197.63832 0.99518204 -137.68723 180.00368 -10.34321 -136.68732 161.51776 -1.5419979 -151.44286 151.60533 36.62561 -133.61377 178.02055 51.64562 -142.27008 161.5348 44.247574 -159.89992 167.83562
17.967297 -132.25916 128.83008 25.57816 -132.00778 127.50818 20.887083 -130.45863 93.204834 21.050858 -121.63344 56.77017 10.356433 -132.51054 130.15198 13.071722 -128.46733 93.95314 16.713747 -121.02832 57.085606 18.097517 -132.89618 153.31061 18.227737 -133.53319 177.79112 20.400776 -148.03995 195.99011 18.992931 -145.75784 198.33157 2.3901749 -140.29124 179.45369 -10.327795 -140.7095 161.36823 0.35643196 -150.85092 153.6064 35.65654 -132.30618 177.86058 47.89438 -135.50725 159.85486 42.14084 -152.30544 168.43117
19.256308 -130.36221 128.63263 27.575443 -129.84003 127.74814 24.918459 -126.90077 93.20267 24.885088 -117.967514 56.825356 10.937172 -130.8844 129.51714 11.842691 -126.170784 94.00867 13.278217 -117.70649 58.180412 18.934254 -131.54025 153.21698 18.6122 -132.71828 177.80132 22.93514 -146.21448 195.65721 20.577032 -144.07608 198.91841 3.5760384 -139.543 179.8217 -10.24435 -142.4073 162.16734 -0.10051727 -153.3321 155.26147 35.37233 -130.27171 178.16429 47.552902 -134.01273 159.2556 43.03024 -150.23204 170.95842
19.01353 -129.66599 129.78258 27.041777 -128.53397 128.6235 26.444298 -125.38648 95.35629 26.160585 -116.80024 59.7304 10.985286 -130.79799 130.94165 9.89271 -126.46 95.820755 9.461118 -117.99063 61.133366 18.99149 -131.02357 153.82623 18.969448 -132.38116 177.8699 23.1383 -145.72812 195.38351 20.622091 -143.69131 199.08932 2.8661919 -140.07332 180.7298 -10.384806 -142.58049 161.34111 0.9376564 -152.93983 146.85399 35.30382 -129.95932 178.12898 47.875923 -132.86057 159.21635 45.083282 -149.96964 169.62042
20.603514 -128.10678 130.27545 27.74828 -125.064026 129.13164 28.657152 -122.392006 96.18967 26.63208 -113.8218 61.232704 13.458748 -131.14952 131.41928 14.160531 -126.594894 96.558914 13.406385 -119.76532 62.283714 19.89822 -130.09491 154.08035 19.192924 -132.08304 177.88525 24.240606 -143.91487 195.64658 21.85695 -141.84297 199.00854 3.3695412 -140.86902 180.90295 -12.585878 -142.017 163.42973 -4.549965 -150.32027 146.38466 36.595417 -128.7355 178.43623 47.299797 -130.54178 160.42207 44.892906 -147.70164 170.95703
20.58713 -128.00443 132.99306 27.515223 -121.67315 132.29774 30.522385 -119.98201 100.67386 25.8587 -112.80052 66.39891 13.659037 -134.3357 133.68837 14.547912 -130.87482 99.950485 11.702943 -124.43681 67.00694 20.064032 -130.11298 155.39853 19.540934 -132.22154 177.80399 24.501345 -144.60623 195.35623 22.154531 -142.78342 199.04608 3.3998432 -141.3351 181.14775 -14.73967 -139.95566 163.53267 -7.4129963 -146.02393 144.18533 35.714844 -126.56304 178.19577 44.13018 -127.509155 158.68288 43.830692 -145.47726 170.05145
20.333836 -128.46497 130.83237 28.378496 -122.58952 130.28548 29.290445 -119.62317 96.68593 25.261177 -113.238464 61.937416 12.289175 -134.34042 131.37924 13.68776 -131.22496 97.09012 11.061924 -124.95285 62.334084 20.099909 -130.23471 154.31519 19.865982 -132.00446 177.79802 25.349417 -144.68626 194.84448 22.733912 -142.13551 198.98526 3.0594368 -140.69073 181.23537 -14.620064 -140.71999 164.20895 -4.013857 -145.5104 150.92654 34.6837 -127.09176 177.58073 40.714027 -125.46627 157.37746 38.868702 -140.6385 164.51349
19.58586 -129.32297 130.7788 26.681068 -122.92848 130.81651 28.097517 -121.56462 97.196976 23.713905 -115.74282 62.827873 12.490651 -135.71744 130.74107 13.798153 -134.58336 96.39194 9.981167 -128.7648 60.779903 19.927471 -130.49066 154.2566 20.269083 -131.65837 177.73442 26.097454 -143.74562 195.36504 23.696728 -141.3596 200.83458 4.583212 -139.64584 181.88663 -12.573256 -145.41147 168.4984 -3.1984787 -156.15501 164.66872 34.739994 -123.4253 177.79395 39.90399 -119.430176 157.9693 38.684208 -133.7038 157.25848
19.9248 -128.27055 133.2692 27.767876 -121.10676 133.26991 32.57013 -120.591064 100.91035 26.888391 -113.49831 66.89699 12.081726 -135.43434 133.26846 14.797843 -133.98077 99.50375 9.884555 -126.982185 65.6689 20.241796 -130.09663 155.36646 20.558792 -131.92271 177.46373 25.911335 -144.3745 194.61145 22.887806 -143.17903 199.90543 6.114624 -139.10326 181.24655 -11.094095 -145.80058 170.60454 -0.62924576 -153.80145 169.78925 35.602417 -124.8346 177.65244 42.85439 -121.2894 156.76784 42.161293 -136.99142 156.61044
20.755371 -128.20734 134.41537 28.355965 -119.619415 135.21056 32.485687 -116.48239 105.59581 26.679466 -106.92705 73.96687 13.154779 -136.79524 133.62018 17.085608 -135.02795 100.24443 13.842876 -127.70131 65.71068 20.82835 -130.38858 155.76039 20.901329 -132.56981 177.10541 23.425045 -146.91959 194.097 21.687992 -144.49857 198.32677 7.734186 -136.67851 180.26682 -9.320358 -143.2916 168.02429 -0.69670296 -155.4208 172.27602 36.896072 -128.21918 177.22366 43.90194 -124.97642 156.14507 40.000736 -140.4327 151.8407
20.99378 -129.12762 132.11105 29.548672 -120.77361 133.55675 35.571575 -116.44557 105.56276 30.714182 -103.52232 74.16403 12.4388895 -137.48163 130.66534 14.449503 -136.62476 97.109406 11.943741 -130.55705 61.398354 21.122639 -131.06573 154.46506 21.251495 -133.00385 176.81908 22.236189 -147.01144 193.76639 21.274054 -144.45047 197.535 8.400295 -133.98558 179.6767 -7.7466507 -138.88948 166.91656 -0.1463356 -152.56395 172.59355 37.27083 -130.22873 176.43927 46.039272 -126.762085 155.55603 39.940414 -139.28743 143.19618
20.905016 -126.36357 132.40973 30.905445 -118.00475 134.17491 40.498802 -114.58348 104.223206 37.238335 -103.18977 72.98548 10.904587 -134.72238 130.64456 13.335115 -133.04317 96.85248 13.172359 -126.537704 61.447567 21.351803 -129.69449 154.46315 21.798588 -133.02542 176.51657 22.337889 -146.72879 194.17574 21.251406 -143.43631 197.3621 6.249716 -135.13043 178.34354 -13.566576 -139.37468 163.94048 -9.435196 -155.83653 174.91321 36.96752 -131.1818 177.19708 45.612465 -123.63049 158.0333 40.84712 -131.90178 141.40802
20.422474 -126.30028 129.89156 30.884077 -120.25435 129.38037 38.71117 -116.21628 94.86513 36.669197 -105.5817 61.819523 9.960872 -132.3462 130.40274 11.777527 -129.49203 96.55086 11.172334 -121.0421 60.127213 21.36642 -129.56546 153.18314 22.310366 -132.83064 176.4747 23.50355 -147.42604 193.59415 22.391806 -145.14635 195.86844 8.437637 -138.92479 177.66064 -8.197638 -146.24081 161.64326 0.40506935 -162.1246 171.86237 37.87558 -131.61768 177.00778 47.383118 -123.643875 156.48108 42.952965 -130.69455 137.49518
21.859499 -126.719444 128.47437 31.82277 -122.60301 128.22078 42.330276 -119.62779 92.00238 43.650738 -110.47786 57.38639 11.896228 -130.83588 128.72795 13.517043 -126.30574 93.62925 13.044861 -116.434845 57.138504 22.38781 -129.42297 152.49216 22.916122 -132.1265 176.50996 23.475458 -147.06627 191.95805 22.672209 -144.6379 195.38625 9.901068 -138.6877 177.74194 -6.8098946 -143.71747 160.07251 -1.7718315 -155.85962 166.60016 40.288074 -131.10707 177.05907 51.09459 -121.49689 157.12465 46.987034 -126.442444 138.52101
22.513344 -127.43382 129.19388 32.93617 -124.97936 128.68602 45.385555 -124.349144 93.24097 48.480835 -115.66692 58.53855 12.090519 -129.88828 129.70172 14.576139 -125.510216 95.12324 15.441616 -116.314804 58.663055 22.987816 -129.64667 152.92345 23.462288 -131.85953 176.65302 24.869553 -149.02184 189.04951 23.533012 -148.54292 194.56401 12.472803 -137.7764 177.77266 -3.9620018 -140.03334 159.04541 -4.159071 -150.73596 157.25674 39.392338 -131.95544 176.86438 51.62638 -121.90638 158.20677 51.82315 -122.99362 142.59691
22.935116 -126.59381 129.0267 32.31498 -125.167625 128.208 43.108612 -123.626816 91.90458 46.42411 -114.88422 56.695694 13.555251 -128.01999 129.8454 15.752197 -122.803345 94.647415 17.771702 -113.91845 58.721455 23.539833 -128.98993 152.92319 24.144548 -131.38606 176.81967 24.468914 -147.35576 189.33281 21.86147 -148.72838 192.6603 12.897521 -130.5697 178.85457 -0.24406624 -126.60098 160.13249 -7.727438 -138.55563 155.3166 38.899292 -130.10522 178.31898 54.095398 -120.3604 160.88893 57.666557 -121.515 145.46742
22.923267 -126.839485 129.59341 32.72471 -126.03312 127.50535 41.943626 -123.959694 90.73807 45.44828 -116.22822 55.289925 13.121825 -127.64585 131.68147 14.826878 -123.05665 96.924904 18.64562 -115.036095 60.855804 23.811249 -128.9357 153.3337 24.69923 -131.03192 177.07397 25.88451 -146.86249 189.143 23.24392 -148.35605 192.56512 14.821947 -130.91614 177.5865 3.266306 -124.41907 157.58693 -2.1545277 -133.08115 147.81944 39.39817 -129.3693 178.94836 56.8217 -119.1891 163.05156 58.933655 -122.060005 150.17317
23.694077 -127.865265 129.35904 34.585423 -128.19232 126.62909 41.511986 -126.529564 89.972305 47.45835 -119.00306 53.60454 12.802732 -127.53821 132.08899 14.420926 -123.8057 97.68801 18.378355 -115.92552 61.907562 24.426842 -129.31989 153.28471 25.159609 -130.77449 177.21039 27.590899 -147.18909 188.27184 25.746656 -147.85956 191.98756 14.11442 -130.43959 177.78412 5.417572 -124.41016 157.90999 2.5375347 -133.06642 150.27664 40.828327 -127.93363 179.59164 58.251335 -117.963394 165.24051 61.500973 -123.69569 153.19887
25.04268 -127.60292 130.04926 36.417732 -125.684715 128.34233 47.165447 -126.29042 92.45519 50.60396 -117.554665 56.47458 13.66763 -129.52113 131.75618 15.731625 -127.371475 97.87224 19.576628 -120.77917 61.61501 25.25916 -129.19678 153.70312 25.47564 -130.79062 177.35701 28.262775 -147.9486 187.54308 27.82999 -148.76125 191.36348 12.92626 -131.79486 177.28493 5.052191 -124.98069 156.42084 9.770082 -132.29422 146.83525 42.015953 -128.78021 179.47685 58.901794 -116.29351 165.95586 60.592087 -121.95791 154.79507
25.531944 -127.23201 131.26813 37.06263 -124.34394 129.14247 48.22533 -125.05791 94.030655 51.03251 -116.04837 58.753696 14.001259 -130.12007 133.3938 17.104525 -126.282364 101.25844 19.545578 -118.14792 65.05324 25.67104 -129.15952 154.37729 25.810137 -131.087 177.48647 30.085213 -147.9862 188.39407 30.111443 -148.72217 192.24194 9.13216 -136.25055 176.17749 1.8959732 -133.06114 155.62943 16.371025 -140.13408 143.44116 41.529366 -128.25598 179.68149 57.82132 -116.34875 164.86311 59.141285 -122.11443 151.73712
24.747618 -127.08299 131.80647 35.688942 -122.9945 130.94092 48.296486 -123.65097 96.46538 49.33121 -114.490105 61.248978 13.806293 -131.1715 132.67203 17.645264 -127.27646 100.05453 19.462355 -118.83942 63.953045 25.410229 -129.24918 154.696 26.07284 -131.41534 177.58553 32.206333 -147.82712 188.7042 31.537804 -148.79742 192.66031 10.523512 -139.07771 175.94518 3.849844 -137.91722 153.93086 19.976896 -145.06161 141.44548 40.99489 -125.873055 179.95148 55.870148 -116.66873 166.58167 60.13855 -130.77141 160.90596
24.417122 -127.21491 130.35017 34.98247 -123.852905 128.81396 45.941414 -124.03697 95.446594 47.71804 -114.91133 60.6277 13.85177 -130.57692 131.88638 17.446457 -126.82216 98.91634 18.825596 -118.10679 62.58114 25.339136 -129.3313 154.005 26.26115 -131.44768 177.65982 32.43101 -146.29604 189.26701 31.477764 -148.0294 192.96223 10.418195 -137.85251 175.90034 3.0003471 -136.47598 154.95619 17.384533 -146.04248 144.15762 44.00387 -125.88024 179.73961 61.118496 -121.63277 167.84529 64.605545 -141.64868 167.05319
24.361488 -126.69801 129.23068 35.06709 -124.82958 128.25923 44.86979 -124.29423 93.39215 46.897667 -115.39243 57.92492 13.655887 -128.56644 130.20212 16.925926 -123.2589 96.383 18.211346 -113.730034 59.6408 25.366661 -128.89597 153.44066 26.371834 -131.09392 177.65063 33.01502 -145.0293 191.34227 31.464916 -145.59686 194.56117 10.850555 -137.35158 176.40205 1.19767 -135.91695 157.47414 13.575848 -144.25381 145.21101 44.953743 -123.464905 180.4957 63.278896 -119.53592 170.78065 67.061325 -140.57687 172.76517
24.665264 -126.4381 129.13254 35.552067 -125.02526 128.3756 44.9776 -123.92424 92.68082 46.75987 -115.105484 57.258545 13.778461 -127.850945 129.8895 17.289474 -122.245384 95.40229 18.308937 -112.46943 58.879467 25.519222 -128.58463 153.39713 26.373182 -130.73114 177.6617 33.832664 -142.54015 193.56746 30.047508 -142.83705 196.98814 11.655931 -139.12027 177.9321 0.48579216 -139.33075 158.80678 12.125705 -146.09471 147.2697 44.511406 -122.35567 178.67361 62.317337 -121.995605 166.55966 63.034065 -141.04224 172.37329
24.54271 -125.33453 129.23022 36.013283 -122.59572 129.11115 44.99871 -120.193565 93.536804 45.660046 -110.522064 58.81916 13.072135 -128.07335 129.34932 16.605667 -122.59469 94.49291 17.385937 -112.24 57.888496 25.48244 -127.875114 153.46384 26.42217 -130.4157 177.69745 34.19367 -143.11134 193.0884 30.321331 -140.69695 197.81786 11.688289 -138.71996 179.74591 -1.446331 -140.31198 160.85574 9.601612 -149.3944 148.96013 43.89293 -123.15041 178.15012 57.07673 -125.54616 162.41977 57.19464 -147.91812 173.37874
25.611946 -125.51781 129.68842 36.438885 -122.53415 129.57297 44.66927 -119.61796 93.10513 44.57298 -110.51483 58.95101 14.785008 -128.50146 129.80388 18.44498 -123.023026 95.132034 19.20592 -113.33139 58.471874 25.987255 -127.80984 153.73755 26.362562 -130.10187 177.78667 34.06252 -142.05109 194.17276 29.454918 -141.88162 198.2742 11.106294 -139.12112 180.11894 -5.0470943 -141.34155 163.0545 4.0525074 -148.88608 150.67097 44.088715 -123.71805 178.12036 57.32985 -126.28645 160.52397 56.245396 -150.81213 170.97696
26.324453 -124.74588 129.71858 36.085358 -122.22359 129.88443 41.2738 -119.057915 94.72658 39.847237 -109.137054 60.988785 16.563549 -127.26817 129.55273 19.955366 -121.493675 94.81291 21.465553 -112.80398 58.495884 26.264046 -127.32115 153.76349 26.203638 -129.89642 177.8084 34.112766 -142.17506 195.05177 29.409748 -141.92754 198.82726 10.652274 -139.80812 181.80426 -6.4535885 -141.50148 163.57097 3.499115 -148.00977 144.3618 41.712677 -119.858665 177.75368 53.02407 -121.220604 159.49323 58.27014 -142.47606 168.98131
26.464397 -124.40593 130.18442 35.024727 -118.99891 130.43842 39.205402 -111.677895 97.363174 38.02427 -99.24934 64.59333 17.90407 -129.81294 129.93042 21.091639 -125.33935 95.10631 23.058609 -118.00009 58.35836 26.183544 -127.00495 154.00238 25.90269 -129.60397 177.82033 33.755352 -141.47153 195.29045 30.939053 -140.39938 198.9474 8.070904 -138.4516 182.08235 -10.343843 -137.76776 165.35579 0.8137913 -141.79178 149.69673 42.101334 -122.00853 178.10722 51.532722 -121.400345 157.37161 54.88752 -139.6453 165.21124
25.319824 -124.26088 131.32166 34.16461 -117.94256 131.77623 37.38324 -110.203316 97.84992 34.837463 -98.881424 65.091385 16.475035 -130.5792 130.86708 18.592434 -126.012054 96.27521 18.743519 -117.39531 60.432262 25.47642 -126.89109 154.5752 25.633015 -129.5213 177.82874 32.205368 -142.05142 195.10188 29.360012 -140.48083 199.67082 7.3815956 -136.05807 182.16472 -10.940998 -135.2273 168.69742 -2.155054 -141.91545 155.14513 41.515106 -123.17415 178.29512 49.267746 -122.903244 156.46808 49.734142 -140.41167 157.81648
25.482624 -124.63406 131.63432 35.252243 -119.516075 132.15994 37.71084 -114.562325 98.30815 35.950462 -103.20694 65.06955 15.713007 -129.75204 131.1087 16.745308 -125.66139 97.30697 14.875692 -116.172646 62.104282 25.345587 -127.07132 154.7406 25.20855 -129.50858 177.84688 31.851204 -143.32324 194.05547 28.558517 -141.52051 198.12166 8.74242 -134.30289 183.26709 -10.205921 -137.60185 171.49059 0.114097595 -150.28186 168.25139 41.046844 -122.84372 177.85764 48.363434 -120.11759 155.33202 50.13611 -136.29695 153.62883
23.794567 -124.21793 132.51004 32.3357 -120.45172 132.82639 31.534689 -112.79073 99.33295 29.333675 -101.652664 66.828835 15.253435 -127.984146 132.19371 16.471817 -121.28932 98.41125 15.567253 -111.63236 63.05497 24.280125 -126.98328 155.1786 24.765684 -129.74863 177.84717 31.407822 -143.66418 194.0157 27.78215 -142.39871 197.78532 11.281208 -135.25264 182.70325 -6.4384327 -144.36598 172.11888 5.6374836 -159.29642 171.97032 39.449245 -122.87904 178.47269 47.20557 -120.13317 155.25435 51.62029 -136.94217 150.19655
23.274445 -126.1754 131.22305 30.15455 -121.45452 131.71724 27.952131 -116.15005 98.49776 24.477837 -107.56795 65.04155 16.394337 -130.89629 130.72885 20.488226 -125.76985 95.69412 20.765343 -117.902016 59.64766 23.831734 -128.00891 154.55457 24.389023 -129.84244 177.88608 28.96534 -144.35619 194.9102 26.124336 -143.75081 198.0124 9.15596 -133.72824 182.30067 -7.257639 -141.47649 173.9167 4.9373455 -155.21252 175.6427 37.907295 -123.07652 179.03062 45.504326 -117.07149 155.73796 49.998 -126.299675 141.19312
22.397308 -127.70926 131.2883 28.647903 -123.73688 130.7732 24.287987 -118.08323 97.471794 20.255342 -110.4915 62.900017 16.146711 -131.68164 131.8034 19.84256 -127.58246 97.164795 19.906794 -120.95305 60.58929 23.200968 -128.8173 154.69559 24.004627 -129.92535 178.10289 26.421347 -144.60118 194.61931 24.815393 -143.27388 197.96248 8.056963 -132.08746 180.39919 -6.929205 -138.2011 168.1392 1.0549088 -155.8487 171.35739 37.504208 -124.99078 178.89992 44.801697 -115.93854 156.37021 48.147778 -118.38031 136.08167
22.74422 -125.98909 131.89764 29.610003 -121.48594 131.91872 27.636219 -115.36232 98.251625 24.09349 -105.87004 64.45076 15.87844 -130.49225 131.87656 18.010967 -125.86126 97.91365 15.355921 -118.797386 61.823586 23.181421 -127.95946 155.05853 23.618622 -129.92982 178.2194 23.526419 -145.18689 194.522 22.826868 -143.14053 197.8345 7.2582855 -130.83044 179.10017 -8.548201 -134.4638 162.55402 -0.38253593 -155.82837 171.82468 38.24659 -127.35965 178.44093 46.33268 -117.6147 156.93892 46.998314 -122.62742 137.98949
22.228289 -124.21643 131.82439 29.544058 -120.18391 131.89917 28.841097 -113.17614 98.33585 25.639023 -101.69002 64.41612 14.91252 -128.24895 131.7496 16.06426 -122.68663 97.661865 13.06311 -114.68065 61.761375 22.722961 -127.00603 155.09564 23.217636 -129.79562 178.3669 21.764748 -145.47098 194.71988 21.852432 -143.00583 198.16855 10.710541 -131.30826 178.84512 -5.5192165 -131.27608 160.51228 -3.732048 -145.98096 164.11996 39.43789 -130.08215 178.98248 48.549057 -122.20126 157.30347 46.1259 -126.51727 138.16478
21.816698 -122.64345 132.24599 30.563969 -118.93798 132.11874 31.016247 -113.07919 99.1433 27.781685 -100.83594 65.82731 13.069427 -126.348915 132.37323 12.788594 -120.4934 98.74362 9.137762 -110.74027 63.779514 22.3522 -126.37514 155.27637 22.8877 -130.10683 178.30676 21.392807 -145.57758 194.2612 21.422394 -144.06757 197.18402 9.372449 -132.565 178.91133 -8.372578 -134.39554 160.88185 -2.871029 -149.22284 173.68628 38.371197 -129.52087 178.87537 48.478287 -117.90109 160.06857 45.72234 -123.59072 143.70882
20.267187 -124.166565 131.51947 29.127724 -119.644875 131.70103 28.27261 -111.60812 97.27777 26.467579 -100.27251 63.739258 11.4066515 -128.68826 131.33789 9.84993 -122.428314 97.40676 4.751873 -113.00397 61.574512 21.435635 -127.19876 154.93988 22.60408 -130.23096 178.36029 20.495407 -144.26831 192.89774 20.565445 -144.06644 196.2789 11.353516 -130.69987 179.48177 -5.3909492 -129.2262 162.23473 -7.164379 -142.76898 170.11215 38.27861 -130.20879 179.06699 50.58902 -122.02268 159.52544 49.045746 -127.480446 144.63261
20.869202 -124.28697 132.61702 29.262081 -121.24832 132.35983 28.65547 -113.38707 98.41089 26.159073 -101.98028 65.383804 12.476324 -127.325615 132.8742 9.737627 -121.380936 100.105515 4.7244577 -112.388725 65.34353 21.583248 -127.48572 155.4721 22.297297 -130.68446 178.3272 19.905739 -144.46814 192.8562 19.723747 -144.11572 196.19 10.85893 -128.27196 179.41943 -2.9055977 -123.906235 159.95172 -7.5538025 -137.07422 165.63121 37.245132 -132.34227 179.10965 51.7343 -125.285995 161.77798 48.99742 -133.22678 151.41737
20.735395 -125.1651 132.29395 29.550003 -121.81208 131.97572 28.860882 -114.523346 97.79085 26.152077 -103.09249 64.59825 11.920789 -128.51813 132.61215 9.538239 -122.255844 99.448235 5.0855217 -112.80422 64.61542 21.339806 -128.16708 155.37183 21.944214 -131.16905 178.44969 17.890999 -147.14485 190.64093 19.00145 -147.41307 193.36841 8.770292 -127.38339 179.83247 -4.108095 -120.36416 159.76947 -6.9978447 -133.42244 156.73589 38.38471 -134.5641 178.9651 55.548767 -124.853836 163.49785 49.69605 -131.87744 152.72733
19.040287 -125.36973 131.6679 27.504055 -122.133514 130.6811 25.958193 -113.80998 96.85135 22.552036 -101.50207 63.662945 10.576519 -128.60594 132.65468 7.508194 -122.99026 99.09725 2.4607925 -113.48017 64.23163 20.314922 -128.36775 155.14745 21.589558 -131.36578 178.627 18.438477 -147.19112 190.90201 19.167923 -147.73515 193.139 6.59568 -131.09354 179.16692 -5.1358356 -124.096016 157.56642 -1.5084438 -133.65076 147.73267 40.872925 -133.70729 179.28793 59.325485 -130.21637 162.47823 52.257965 -143.03336 158.59811
20.011112 -124.95447 132.77927 28.370308 -121.54763 132.83838 29.105492 -114.33686 99.29562 26.020985 -102.26119 66.502205 11.651918 -128.36131 132.72017 9.587703 -121.79958 99.652565 4.2605314 -112.232285 64.79313 20.616169 -128.17767 155.81708 21.221228 -131.40086 178.85487 18.516861 -147.68779 191.06499 19.971737 -148.28377 192.7509 3.4306202 -131.42743 180.02438 -8.756844 -124.837944 160.10852 -5.7770653 -133.88698 142.15727 42.02475 -132.68497 179.77214 58.885063 -130.51537 162.6306 50.107883 -146.69463 162.28212
20.078953 -124.902405 132.79929 28.254847 -120.53449 133.60896 28.933096 -112.85257 100.7003 25.411694 -100.36419 68.16922 11.903057 -129.27031 131.9896 11.684136 -122.196976 98.49602 6.695075 -112.97143 63.589115 20.45667 -128.21204 155.865 20.834389 -131.52165 178.93073 19.702482 -148.14822 192.27467 20.456469 -148.04099 193.95338 3.3921852 -133.03342 178.84985 -9.004032 -126.10894 158.50735 -5.428625 -130.91777 137.90314 38.25613 -131.89723 180.57295 54.059658 -129.73706 164.35912 47.606018 -142.37238 166.15721
20.230803 -122.9783 133.07602 27.653233 -118.2113 134.48273 27.59982 -109.10875 102.764206 24.841805 -95.3064 70.23961 12.808372 -127.7453 131.6693 12.173101 -119.49457 98.503044 7.772931 -109.22216 63.702766 20.3233 -127.291435 155.93398 20.415794 -131.60457 178.79193 21.093836 -149.08195 192.11974 21.729696 -148.83498 195.86436 3.6916714 -135.06339 178.24347 -8.495558 -127.31574 156.93909 -5.8132095 -130.67343 136.63367 38.479195 -128.98889 180.20053 51.720383 -135.13376 162.9173 43.60826 -158.11072 176.58028
20.416714 -124.47891 134.02156 27.37835 -120.00073 134.95935 26.827255 -112.03891 104.37851 24.540142 -100.00644 71.29758 13.455077 -128.95709 133.08377 13.965366 -121.05998 100.1337 12.686441 -112.68103 64.89334 20.17464 -128.05917 156.3171 19.932568 -131.63945 178.61263 20.92241 -148.98557 193.01912 21.656044 -147.3356 196.05507 3.4685822 -133.47325 178.2545 -7.744665 -127.348335 156.5264 -2.7356567 -133.7637 139.21889 36.909378 -129.21797 178.77919 49.132874 -133.26784 160.46082 42.952705 -153.77608 171.16634
19.521698 -123.43451 133.84793 27.680592 -123.6906 134.13388 28.443296 -116.7081 102.00744 28.219803 -104.02417 68.51555 11.362805 -123.17842 133.56197 11.197967 -113.13365 101.12055 11.791033 -103.00079 67.23239 19.464409 -127.50195 155.997 19.407118 -131.5694 178.14606 20.811535 -148.19972 193.42822 21.725002 -147.17949 195.74036 3.8819313 -132.95671 177.81525 -6.132208 -129.13284 155.89905 -1.9671078 -139.40161 143.41643 36.00391 -128.16556 178.35567 47.922306 -134.51537 159.60158 43.767597 -152.32881 177.68364
20.401878 -123.99057 132.79828 26.833313 -123.60947 133.61006 26.684956 -118.00633 101.66103 26.88678 -107.241165 68.4624 13.970444 -124.37167 131.98651 15.738151 -115.2932 98.56295 17.703938 -106.55207 64.81529 19.592836 -127.807106 155.16711 18.783794 -131.62364 177.53595 22.326292 -146.8549 194.46355 22.40837 -145.451 196.79854 3.2833652 -133.63751 176.77069 -5.108225 -132.00912 155.73064 2.965582 -145.4287 148.83507 34.29198 -127.49544 178.06577 44.15194 -128.64844 158.90579 41.81334 -144.86298 173.20555
19.915472 -124.740875 130.5593 27.900414 -125.47053 130.88232 28.175848 -120.7095 97.489876 28.755255 -110.886566 62.429367 11.93053 -124.011215 130.23627 12.434675 -114.10562 96.31883 13.771303 -104.978935 62.556168 19.047783 -128.20375 153.75519 18.180092 -131.66663 176.9511 20.92662 -147.76645 193.71663 19.84478 -147.1287 197.65831 2.6678867 -135.12286 175.43123 -3.916418 -135.0103 153.69405 9.907827 -147.80193 154.22977 34.11296 -128.63342 177.21991 44.193245 -126.8837 156.96199 40.68987 -144.7431 165.71915
19.843493 -124.84619 130.61754 28.249855 -122.54613 131.89224 31.270817 -118.24551 99.35018 30.52607 -108.65282 65.17508 11.437129 -127.14626 129.34283 11.883991 -118.73326 95.75616 10.934891 -109.47791 61.656036 18.71213 -128.21756 153.51495 17.580767 -131.58893 176.41238 19.994099 -147.3832 193.80182 18.739567 -145.86745 197.3374 4.03018 -136.30908 176.61353 -5.42013 -139.57854 156.37906 4.4309483 -151.63823 163.13026 34.134056 -128.78137 177.34889 45.303864 -125.858 156.20901 47.150146 -143.09824 155.28761
17.418272 -125.3163 127.4892 26.323055 -125.669304 127.94363 26.103767 -119.9902 92.52405 27.345095 -110.75718 57.12477 8.513489 -124.96329 127.03477 7.728217 -117.054375 92.72329 6.994725 -108.16252 57.76645 17.269554 -128.04688 151.82843 17.120838 -130.77745 176.16765 19.21179 -147.24585 193.28723 18.24389 -145.16833 196.21326 2.7258377 -134.746 176.44395 -6.421713 -136.15993 157.10953 3.8226395 -148.7982 163.94019 30.764088 -129.21375 176.18118 41.16368 -126.12664 153.88416 44.29235 -136.32716 140.15918
16.387321 -126.200874 127.11693 24.556816 -124.83934 127.44259 24.784283 -119.64576 92.79785 25.84372 -111.03489 57.047386 8.217827 -127.56241 126.79126 7.562971 -120.48601 92.29756 6.092328 -112.75003 56.680637 16.62894 -128.24341 151.54517 16.87056 -130.28595 175.9734 17.941544 -147.06839 192.98056 17.260838 -144.129 195.7999 1.2423096 -133.83368 176.6023 -7.4616013 -134.0903 156.35985 3.1346035 -148.93567 163.0126 30.133574 -131.1772 176.32515 39.698887 -128.4613 152.27344 42.31852 -134.77554 134.73747
16.387754 -125.42205 127.75206 24.223206 -123.85512 128.38547 24.906132 -118.42147 94.082214 26.330738 -108.985725 58.90535 8.552304 -126.98898 127.11865 8.445611 -119.54141 92.5573 7.5956545 -111.96321 56.656715 16.48273 -127.755905 151.7947 16.577705 -130.08975 175.83733 17.985004 -147.06842 192.07202 17.491096 -143.98343 194.64026 1.4291096 -133.65567 177.20303 -5.6184254 -134.1981 158.34497 6.745554 -147.0464 162.38727 31.748243 -132.44185 175.66518 42.59469 -130.6303 150.98373 42.41089 -137.51761 133.4677
15.819729 -124.33133 127.91557 24.038887 -122.58126 127.1887 24.554878 -117.61706 91.320404 25.208103 -109.1985 56.1023 7.6005707 -126.08139 128.64246 5.476981 -118.041794 94.50827 4.2790003 -108.84599 60.555374 16.096737 -127.20755 151.83517 16.373743 -130.08377 175.75476 18.447395 -145.06746 192.37871 17.519577 -141.91637 195.65004 1.2109032 -133.66563 177.29762 -7.138218 -140.93204 159.49963 8.472399 -154.17287 168.58289 29.65549 -130.38992 176.06297 39.735954 -127.964676 152.255 41.815292 -135.13257 133.36319
16.616093 -123.7254 129.45038 24.853168 -122.76388 128.3177 26.644379 -117.87554 92.89013 28.693542 -108.74293 58.484962 8.379015 -124.686935 130.58307 7.361969 -115.793594 97.67839 7.6972017 -107.00662 64.59622 16.388996 -127.05843 152.53848 16.1619 -130.39146 175.62657 19.617939 -143.356 192.75822 17.648685 -140.45912 195.81303 1.925806 -135.32028 176.3159 -5.5260067 -145.42558 160.56625 9.532366 -157.52481 174.2596 29.143599 -131.32687 176.56973 38.79171 -128.41449 153.8908 39.4377 -135.40033 135.49873
16.813534 -124.10477 127.99822 24.312637 -124.03924 127.709076 26.442581 -120.62547 92.147934 29.22349 -111.190544 57.41256 9.31443 -124.17029 128.28737 8.490542 -115.56945 94.76803 9.458729 -107.93892 59.976437 16.395756 -127.45309 151.84534 15.97798 -130.8014 175.69244 18.460949 -144.73091 192.72119 17.086807 -139.95915 195.10596 2.6929722 -135.78456 176.12471 -4.466799 -144.64688 161.52309 9.737318 -154.6976 174.17058 30.83626 -131.06393 176.45825 40.25858 -127.24515 154.98232 37.58876 -135.58224 137.56706
16.701656 -125.023895 127.49363 24.165493 -125.43622 127.18808 25.415915 -122.03837 91.11993 28.274023 -113.30565 56.23884 9.237822 -124.61157 127.79918 9.406599 -116.20845 93.79134 10.229838 -108.95552 58.480762 16.306145 -128.08607 151.7267 15.910632 -131.14825 175.95978 17.682579 -143.67308 193.49857 15.878799 -140.29713 197.2851 2.7747498 -134.13924 176.73645 -5.548197 -142.35811 160.73209 8.881632 -152.05382 175.0107 30.32039 -132.10167 176.84164 40.138634 -128.788 155.84189 37.33587 -138.87039 138.40363
15.975506 -127.782875 126.59128 22.67942 -127.17297 126.66097 24.159998 -124.13099 89.509415 27.317455 -116.71884 54.39379 9.271592 -128.39278 126.52158 9.675836 -123.26569 90.980515 9.9321375 -116.94579 54.18602 15.881063 -129.63681 151.46693 15.786622 -131.49074 176.34259 18.71559 -143.00272 193.52576 16.288088 -140.53284 196.91101 4.0858383 -136.23451 177.02615 -2.5409927 -145.29443 160.88947 12.783779 -152.37952 172.83981 30.279785 -130.39447 177.16531 42.197975 -124.381165 157.31464 39.049805 -134.48073 146.58302
14.2065525 -129.91049 126.086624 20.386696 -128.67252 125.95904 20.905643 -125.39481 88.33078 22.893074 -119.230965 52.30941 8.026409 -131.14847 126.21422 6.9201117 -127.70827 91.13127 6.2342463 -121.70892 53.94681 15.019735 -130.89806 151.49539 15.832918 -131.88562 176.90416 18.332888 -145.25485 194.7516 15.229181 -141.8718 196.6227 3.2273636 -134.79376 177.70772 -3.2186909 -141.65685 160.181 9.516863 -150.94553 171.21469 30.646152 -132.35748 178.63843 43.589928 -127.30374 160.50691 37.949593 -136.47498 152.97493
14.140553 -130.97102 125.93468 21.128231 -130.91852 125.56832 22.20827 -127.49027 88.154396 23.034143 -120.705475 52.060738 7.152876 -131.02353 126.30103 5.8578815 -126.69905 90.76922 4.8890553 -119.42511 53.528038 15.074001 -131.74326 151.69516 16.007448 -132.5155 177.45563 17.326696 -146.2167 195.20662 14.685335 -144.36441 196.70512 2.9404373 -134.90211 177.3926 -2.9384823 -139.226 157.65532 9.419888 -151.11453 168.60355 33.060555 -132.41177 178.73672 46.563435 -127.815674 161.59395 40.201332 -140.61569 158.75104
14.688641 -131.67938 127.17813 22.538374 -129.14175 127.023285 23.367754 -124.90934 89.33186 24.132177 -118.87231 53.336052 6.8389072 -134.217 127.33297 5.527897 -130.5569 91.891396 3.1199799 -124.1803 54.29306 15.417791 -132.33951 152.66777 16.146942 -132.99965 178.15741 17.544277 -147.24464 195.22829 15.929039 -146.96489 197.53395 2.0755024 -137.24776 177.84084 -5.175434 -136.74573 155.29718 6.4809036 -144.61461 144.18407 34.607555 -131.89653 179.04932 49.812126 -129.05447 160.33514 44.74893 -146.11266 160.68063
14.741146 -133.33096 129.11884 22.90847 -130.76575 128.72237 21.353357 -124.91455 91.214355 22.316286 -118.17001 56.416546 6.573822 -135.8962 129.5153 5.5360737 -131.7734 94.78488 2.1320362 -125.22696 57.491844 15.596384 -133.46477 154.01825 16.451622 -133.59857 178.91765 15.90048 -149.81319 193.30698 16.327585 -150.56398 196.74628 0.40884972 -139.04909 178.89926 -10.277395 -135.54245 156.34361 -2.6292324 -140.38058 136.8982 35.731007 -132.12245 179.51143 53.76481 -135.84909 160.96541 49.18286 -159.055 165.43121
14.819748 -134.67204 129.53125 22.922956 -132.49947 128.68216 21.849005 -128.02632 91.102295 23.06088 -121.808784 55.7122 6.7165394 -136.84462 130.38034 5.646921 -133.33342 95.805695 3.1506119 -127.35136 58.62259 15.839526 -134.49445 154.55136 16.859304 -134.31685 179.57146 16.39325 -149.66962 196.46268 16.566986 -148.56512 197.8353 1.7190437 -141.10283 179.70404 -9.905321 -138.9463 155.96423 -3.7451725 -143.90738 132.79803 36.45259 -133.36124 179.95795 53.153233 -137.33258 161.97276 46.05307 -163.34488 169.13153
15.745398 -135.45953 130.3923 23.434254 -132.70245 130.01599 22.03422 -128.10619 92.62584 22.694698 -123.01196 58.099236 8.056541 -138.21661 130.76863 6.9535103 -134.49124 96.16347 4.0035973 -128.17552 59.36412 16.5014 -135.44296 155.25775 17.2574 -135.42638 180.1232 17.829227 -151.8537 195.62529 17.600368 -150.57361 198.66982 3.352024 -143.28915 179.70355 -6.137247 -141.92534 155.18591 1.4723473 -147.24797 131.25203 36.765076 -134.74321 180.07693 52.85752 -134.69798 160.71558 45.754723 -159.17096 165.24911
16.707579 -134.53781 130.27939 23.544985 -132.54199 129.68846 22.759413 -127.834984 92.03857 24.250254 -121.37568 57.403637 9.870173 -136.53362 130.87032 9.151276 -131.46577 96.57557 6.911807 -125.32576 59.76216 17.182331 -135.47755 155.41382 17.657082 -136.4173 180.54826 16.852947 -154.19603 194.34248 16.84644 -153.79463 197.69106 2.8520203 -143.11557 180.38739 -6.530308 -140.0968 155.86075 0.46029854 -144.78964 132.56438 37.260124 -134.9585 180.54018 54.227303 -135.79156 162.06598 48.54915 -161.33342 167.21556
16.877415 -135.29947 130.38542 23.97693 -132.73317 129.83203 22.637459 -127.717476 92.74424 22.752459 -121.93008 58.079376 9.777901 -137.86578 130.93881 8.561384 -133.7956 96.74982 6.253956 -128.67458 59.937485 17.4559 -136.24117 155.64003 18.034386 -137.18286 180.89464 18.143261 -155.24052 195.26466 17.19236 -154.65297 198.18492 2.796791 -143.68396 180.80357 -6.653593 -139.33464 156.14131 0.4558487 -143.16495 131.7526 37.61108 -135.50452 181.38376 54.2613 -135.1568 162.78065 48.08146 -159.01477 166.09518
17.249008 -135.63692 130.34192 24.425337 -133.21716 130.44353 23.725674 -128.3641 93.17006 23.801685 -123.28723 58.29651 10.07268 -138.05667 130.24031 7.5046597 -134.0564 95.67507 4.571226 -128.53482 59.20212 17.831396 -136.67758 155.74094 18.413784 -137.71826 181.13995 17.542313 -155.29117 192.65251 18.089073 -157.80704 197.47478 3.1930866 -143.26541 181.07242 -6.3671627 -139.4285 156.19353 -0.3785057 -144.02188 132.02112 38.691757 -136.77806 181.2491 54.934402 -132.692 162.47012 47.33587 -154.38516 162.32617
16.90723 -136.74104 130.88724 24.413073 -135.17143 130.84396 23.224058 -129.20241 93.73517 23.319221 -124.71891 58.981052 9.401389 -138.31065 130.93053 7.0989933 -134.59128 95.43524 4.713312 -127.558205 58.38295 17.900146 -137.52261 156.07028 18.893063 -138.30418 181.25334 18.29656 -156.95691 192.39383 18.83964 -158.66394 196.77695 3.6366253 -141.76343 182.01416 -7.323889 -136.316 158.38087 -3.738947 -141.3809 136.05307 36.344456 -140.38422 181.26892 50.101784 -137.39874 162.09746 40.172726 -152.17656 157.87198
17.197859 -136.6951 131.8868 24.996033 -136.53836 131.87271 24.213741 -130.9639 95.285355 24.795732 -125.08764 60.45106 9.399685 -136.85182 131.90088 7.7681103 -132.20337 96.64819 6.8280344 -124.123184 60.37794 18.288486 -137.90329 156.57568 19.379116 -139.1115 181.26459 19.347858 -156.95056 193.09679 19.320255 -157.96405 196.7289 3.42025 -141.86356 182.13954 -7.8222446 -136.65915 158.74088 -4.886362 -142.94781 136.69206 36.272106 -139.33926 181.9008 45.717316 -132.46057 161.9323 40.059414 -144.92189 146.67639
18.030441 -137.12091 131.62708 26.381573 -136.79218 131.57666 25.688631 -131.59834 95.37264 26.273233 -125.209526 60.19304 9.679311 -137.44965 131.6775 7.8538 -132.8914 96.49465 6.567052 -124.64692 60.421677 18.937796 -138.3147 156.37244 19.84515 -139.50848 181.11781 20.524166 -156.871 194.26686 19.986492 -158.03104 196.76219 3.615017 -141.75795 181.82338 -8.324284 -135.65483 159.14523 -5.5466385 -140.77121 137.48143 36.264183 -138.33475 181.28963 45.470688 -131.55356 160.82037 41.731655 -143.25003 147.83458
18.667965 -137.9416 131.80986 25.469448 -138.31285 130.67935 24.68743 -133.76213 95.33519 25.655285 -128.34183 60.655838 11.866483 -137.57036 132.94037 8.683577 -133.88954 98.3546 7.9314613 -126.93317 62.367188 19.49342 -139.09613 156.34106 20.318874 -140.25067 180.87228 20.402817 -157.70956 194.09567 18.949497 -157.29648 197.1022 3.9690514 -141.87207 181.98662 -7.9297676 -135.08958 160.33984 -4.637516 -141.07857 143.13821 36.08831 -140.80414 181.12473 45.092354 -134.48549 160.69441 40.60199 -144.45482 144.87105
19.388523 -137.9667 131.64084 26.8225 -137.27628 130.53032 25.62349 -131.9417 95.60856 25.140078 -125.66058 61.62747 11.954546 -138.65715 132.75134 9.711666 -134.12001 98.2322 8.154067 -126.28006 62.639885 20.063984 -139.52298 156.07227 20.739443 -141.07927 180.50368 21.204765 -158.02806 193.99413 19.481632 -157.92314 196.73308 3.8470612 -143.57387 181.71634 -11.380802 -135.45087 160.67639 -6.671812 -139.78212 140.19818 36.430084 -140.99562 180.42485 44.91832 -131.87311 160.06003 41.273674 -138.36658 145.59811
19.856068 -138.40596 130.6015 28.452705 -136.68314 129.59471 28.087116 -131.25084 94.48345 27.442966 -124.19471 60.48714 11.259428 -140.12878 131.60828 8.756165 -136.14595 97.237076 6.5365314 -127.76518 60.968315 20.49847 -140.08423 155.35245 21.140871 -141.7625 180.1034 21.662233 -158.7122 193.40897 20.645002 -159.39668 196.37247 3.6957283 -145.2547 181.96332 -11.853474 -137.42184 161.88628 -6.668041 -143.60341 142.33026 37.166027 -140.82376 180.31575 45.520203 -131.26645 160.41284 41.050415 -139.65315 147.06735
19.488602 -139.74847 131.53308 28.232069 -138.52068 130.56773 29.147524 -132.6343 96.55485 28.5307 -125.58235 62.996727 10.745132 -140.97626 132.49843 8.84358 -137.28984 98.39 7.272917 -128.722 62.206345 20.4784 -141.15775 155.62498 21.468197 -142.56702 179.71689 22.796986 -159.2427 193.42961 22.580479 -158.16281 196.03383 4.2379417 -145.11812 182.25017 -11.111855 -142.2777 162.43857 -5.3105793 -157.5731 145.27078 37.638138 -142.46126 179.7544 45.272064 -135.001 158.88747 40.37132 -144.28514 143.42627
19.525394 -138.50323 130.93335 29.318731 -136.84358 130.49966 30.525528 -131.13982 95.41701 28.82283 -122.68123 61.592403 9.732057 -140.1629 131.36705 7.135521 -135.81598 96.90759 4.837553 -127.01889 60.17549 20.643782 -140.55977 155.12619 21.762169 -142.6163 179.31905 22.66711 -159.15173 192.77597 22.617954 -159.38669 195.86356 6.9320774 -146.28735 181.24475 -11.858002 -146.69063 162.87544 -11.80925 -160.47285 151.34454 37.917362 -143.09686 179.20024 46.77402 -135.30821 157.93015 43.075504 -144.00601 142.49748
20.353504 -140.71103 129.4966 30.786894 -140.81696 127.8053 31.296364 -137.50403 90.891884 31.059925 -130.99808 55.93456 9.920114 -140.6051 131.1879 8.354305 -136.75604 96.20951 8.570667 -129.15279 59.645493 21.216139 -141.63995 154.2333 22.078773 -142.56888 178.97002 22.005882 -159.91656 192.59888 22.415726 -159.25677 195.57422 8.373117 -143.49307 181.91602 -11.595133 -144.52939 165.30786 -16.095772 -161.50871 158.43262 39.36376 -142.5879 178.00594 47.060097 -136.57816 155.10768 41.323524 -148.92487 142.96158
20.202057 -139.91254 129.77545 30.862839 -138.6874 128.55862 31.688787 -134.58125 93.30865 30.181246 -126.712585 58.406185 9.541273 -141.13766 130.9923 8.253461 -136.77452 96.2089 7.672182 -128.24825 59.975086 21.301174 -141.22739 154.17947 22.400291 -142.54225 178.58351 22.677956 -158.01094 194.10225 22.91433 -156.79185 197.23045 9.503834 -143.43762 179.72426 -12.706421 -143.94672 163.4938 -17.021204 -160.27249 165.30975 38.282383 -142.98476 177.61981 46.200897 -137.6752 155.24495 40.814743 -149.46361 144.22176
20.649513 -140.05087 129.28714 30.556707 -138.20476 128.84834 29.79827 -132.58505 92.83825 28.218994 -124.56943 58.048767 10.742317 -141.89699 129.72592 9.007118 -138.52658 94.36992 7.2179585 -130.09143 57.48467 21.665848 -141.24356 153.74445 22.682182 -142.43625 178.20177 22.085958 -157.68828 193.8717 22.504236 -156.52388 196.73187 8.998142 -142.977 180.50497 -12.229612 -142.17027 165.06764 -14.694206 -157.20134 170.46092 39.602608 -142.45352 177.18144 48.801407 -136.45 154.6567 44.41955 -149.02548 142.36275
22.108524 -139.50844 127.90749 32.276115 -136.53656 127.31505 33.130966 -131.87259 91.51544 31.670372 -124.09432 57.352005 11.940932 -142.48032 128.49994 10.816352 -138.5122 93.65052 8.971551 -129.6538 56.626266 22.507858 -141.07764 152.88977 22.907194 -142.64685 177.87206 21.818615 -158.6032 192.71638 20.951641 -159.30583 193.96446 12.932116 -144.2726 180.2473 -7.3367977 -147.45801 170.23383 -11.630636 -157.94223 173.9754 38.267334 -143.34624 177.16402 48.0922 -140.30713 154.62675 45.027283 -154.18265 143.94977
22.243256 -139.1842 127.607506 31.329086 -138.38596 127.277626 32.800106 -133.83133 91.50754 32.700138 -125.756546 57.548576 13.157424 -139.98245 127.937386 11.555393 -135.45497 93.48973 10.41137 -127.256485 57.087116 22.644112 -141.08661 152.58788 23.044968 -142.98901 177.56825 20.427986 -157.18832 192.97095 20.313683 -157.41196 194.90802 15.735952 -140.72873 179.15558 -1.4638557 -139.34665 172.49835 -7.286518 -149.36575 184.48457 38.14247 -144.85364 176.4936 47.083527 -141.52596 153.06747 43.00637 -153.4441 141.83012
21.32236 -142.46143 128.37369 28.515085 -139.87326 127.94815 28.862482 -135.34053 92.73361 27.884846 -132.12546 58.310417 14.129634 -145.04959 128.79922 9.882154 -143.39677 93.14656 7.1773453 -138.92525 56.869106 22.335823 -142.92873 152.85806 23.349285 -143.39603 177.34244 19.534088 -156.81906 193.46388 20.42514 -156.01913 195.86217 16.03938 -140.64584 178.86302 -1.2411156 -138.03398 165.83017 -9.006451 -145.02325 178.20409 38.15425 -145.36041 176.22012 46.431854 -142.39432 152.5997 43.473396 -154.14209 140.39392
22.553667 -141.48392 128.13911 29.566187 -139.94945 127.32311 30.052944 -136.183 92.0649 29.627407 -131.03177 57.91017 15.541146 -143.01839 128.95511 13.463645 -139.42099 93.94496 10.754984 -133.79585 57.740005 23.041393 -142.56299 152.66757 23.529118 -143.64204 177.19603 19.716124 -156.4198 192.7873 20.295488 -156.56503 195.3216 15.443642 -138.85077 181.15848 -1.172142 -131.78679 168.27759 -8.50436 -139.54616 181.19843 37.839027 -146.46646 176.06364 45.799232 -143.2582 152.15332 42.38485 -153.44629 137.99484
21.240488 -140.78278 125.60904 30.15429 -138.3471 125.330734 30.444233 -135.24594 88.18736 27.682514 -129.45155 51.459957 12.326688 -143.21844 125.887344 8.776304 -141.74599 89.09012 6.4911404 -135.0235 51.297253 22.437227 -142.07756 151.39594 23.633966 -143.37234 177.18283 20.691261 -158.32298 192.13806 20.52451 -156.35817 195.46463 13.864905 -139.19289 181.47633 -6.2602043 -134.23564 174.3907 -11.270824 -140.95258 187.82121 39.956886 -144.58997 175.13684 49.130432 -141.41812 151.62111 45.139263 -153.20885 139.46123
20.70116 -140.67773 126.386765 31.332825 -137.55965 124.25038 29.718956 -131.15335 86.83186 27.679234 -124.08001 51.411716 10.069498 -143.79582 128.52315 5.9439564 -141.75885 94.35959 1.7247791 -133.49867 57.58036 22.291779 -142.05832 151.79147 23.882399 -143.4389 177.19617 20.457144 -156.73796 192.17914 19.859331 -155.68184 195.8356 13.474894 -138.14276 180.577 -6.0602474 -134.86992 171.66515 -9.096224 -142.72153 184.37366 39.06141 -145.88667 175.91222 47.012493 -140.76454 152.63249 40.54213 -150.96579 138.73743
21.784893 -140.03583 127.011536 30.643616 -136.4347 125.48702 29.088917 -129.79572 87.82189 26.766731 -122.98501 52.044167 12.92617 -143.63698 128.53606 10.375031 -140.7121 93.690895 7.408188 -133.07343 56.847084 22.962978 -141.64816 152.11076 24.141064 -143.26048 177.20999 19.736439 -156.99516 191.27983 19.187641 -155.7115 194.93666 11.799778 -135.45409 181.36952 -9.629322 -128.48703 172.41858 -17.201962 -142.66566 186.34149 38.951416 -146.53223 175.89421 47.17232 -142.53107 152.38104 40.77515 -152.22876 137.64014
19.777287 -140.33081 126.79221 28.620613 -137.4328 125.88685 27.571335 -132.0536 87.62017 25.944714 -125.9825 51.256927 10.93396 -143.22882 127.69758 7.2052765 -142.53664 91.98678 4.9977646 -136.27478 54.497646 22.09528 -141.67249 152.05467 24.413275 -143.01414 177.31714 18.886826 -157.4102 189.5597 19.486603 -157.13167 194.44092 15.044457 -133.64377 183.24916 -3.7355118 -120.89833 177.69142 -15.7213745 -134.20197 187.85278 39.41503 -146.5558 175.80968 48.12411 -142.22845 152.21007 41.415302 -151.58653 137.21233
20.56794 -139.58923 128.40637 31.657146 -137.27908 127.2496 30.682045 -133.01483 91.08179 29.1903 -125.25951 56.067265 9.478735 -141.89937 129.56314 7.5889664 -138.96387 95.66679 6.3162518 -129.76726 58.71412 22.57246 -141.31416 152.88522 24.576982 -143.0391 177.36409 17.540392 -156.62012 189.69148 17.973013 -157.96857 195.11559 15.837665 -134.71236 182.97495 -1.2659969 -121.95968 177.91959 -11.035156 -131.2997 188.1289 39.482964 -146.79121 175.53906 47.155323 -141.61365 151.89864 38.97048 -150.51927 136.04169
21.700048 -140.80603 129.5952 32.243904 -139.4701 128.3619 32.580425 -138.35547 94.314545 32.57161 -129.74904 60.386562 11.156192 -142.14197 130.8285 11.605044 -139.23021 98.439 11.714374 -131.1671 62.2753 23.130444 -142.04507 153.45148 24.56084 -143.2841 177.30777 16.444214 -156.42114 190.36201 16.778336 -158.841 195.2379 18.665075 -134.58849 184.225 2.2196236 -120.26402 178.14775 -9.339449 -130.68289 186.45497 40.546288 -146.05191 174.39786 47.807915 -140.78873 150.73143 40.478622 -148.59453 133.3866
22.42992 -138.02037 130.14172 31.612486 -138.73459 129.13466 33.963253 -139.27165 95.364136 36.123043 -128.98021 62.475426 13.247354 -137.30615 131.14877 13.795117 -133.09863 98.824066 15.747381 -124.07353 62.97944 23.4851 -140.936 153.68143 24.54028 -143.85164 177.22112 15.289764 -157.52504 189.2083 16.758423 -161.03117 194.34236 19.101536 -134.61797 184.3607 3.15695 -118.806274 178.16946 -9.761141 -127.45822 185.99084 40.353615 -146.87338 173.65936 48.41488 -139.87369 150.65933 42.162254 -144.37839 132.39674
22.829243 -139.09634 129.84372 33.914314 -140.34373 128.31638 34.507603 -139.98605 93.496826 35.810722 -130.19475 59.806435 11.74417 -137.84897 131.37105 13.018667 -131.6732 98.879234 15.268229 -121.317 63.563972 23.629726 -141.56877 153.45613 24.43021 -144.0412 177.06854 15.189934 -154.89934 190.579 16.882221 -160.96437 195.73924 21.190504 -135.74434 183.05568 7.7276907 -119.01504 176.98979 -4.465069 -126.16352 187.3747 40.75019 -146.89497 173.64871 48.22538 -140.31586 150.69717 40.06717 -147.98412 134.5413
22.215403 -137.58752 129.42429 32.351234 -139.18704 127.306335 32.779034 -137.5955 92.38935 35.40586 -127.52284 58.769955 12.079571 -135.98802 131.54222 12.183705 -128.2414 99.441895 13.581981 -116.90423 64.90794 23.301914 -140.8984 153.12875 24.388428 -144.20929 176.83322 14.597596 -153.23007 190.49908 16.261974 -159.02823 196.25195 19.003733 -136.04698 183.42004 0.15692711 -122.99791 178.67671 -9.297426 -129.44266 191.96439 37.728134 -150.4908 172.2061 43.79293 -145.08772 148.8484 34.907707 -149.23877 134.69995
22.898993 -138.04056 129.55211 33.671062 -138.73506 127.479515 35.967617 -136.59502 93.08533 37.457756 -125.8924 59.61789 12.126922 -137.34604 131.62471 10.9579935 -130.6656 99.697655 11.70702 -120.1495 65.71755 23.624134 -141.20203 153.00656 24.349274 -144.3635 176.461 14.579041 -151.76794 190.73535 16.1199 -158.46344 195.12064 18.943203 -134.77432 183.33987 2.9277172 -119.61011 178.4082 -8.223814 -128.4398 191.15865 37.51149 -151.16908 172.06837 42.680244 -147.70175 147.9166 32.31781 -153.10951 133.12717
21.74025 -136.43948 129.85327 31.57162 -136.78552 128.1603 34.0067 -132.79773 94.35705 35.77544 -121.2979 61.36426 11.908876 -136.09343 131.54623 10.071519 -128.53543 99.57406 11.28385 -117.284065 65.74264 23.00355 -140.47726 152.95068 24.26685 -144.51506 176.04811 14.869658 -155.90775 187.87996 16.681873 -160.12875 192.34843 19.770245 -135.94394 182.77031 3.2811298 -121.36906 178.88402 -8.817322 -130.70897 190.23111 37.667088 -150.97868 172.13374 43.195267 -148.01828 147.68192 34.314186 -155.17215 133.38425
21.653421 -138.12534 127.04993 29.936205 -143.07397 124.15201 30.930079 -138.81847 86.88871 35.00193 -130.83188 52.405823 13.370639 -133.17671 129.94785 11.941646 -122.629906 97.40563 13.647951 -110.74867 63.883324 22.924507 -141.24472 151.41502 24.195593 -144.36409 175.78012 15.602711 -155.97414 187.46878 17.465073 -160.68651 191.92075 17.45599 -135.56079 182.54576 0.5628834 -122.260864 176.8085 -8.873779 -132.00569 187.54784 35.46962 -151.7604 172.57997 41.51697 -148.68776 148.7936 34.862854 -153.49542 133.90045
22.563583 -138.72894 127.423965 30.692947 -140.74336 125.61584 30.648048 -135.24313 90.53167 34.109573 -126.65895 56.74316 14.434217 -136.71452 129.23209 10.591132 -130.95909 96.052895 12.434301 -120.76236 62.441628 23.393929 -141.5483 151.42212 24.224274 -144.36765 175.42026 16.325554 -154.72021 187.53873 17.210793 -160.93597 192.20047 16.81633 -135.20802 180.5356 -2.139433 -123.68713 175.01947 -9.2422695 -135.16252 191.13586 34.233498 -153.26639 173.24078 39.34928 -154.4468 149.48303 31.597363 -159.30547 134.17143
22.000875 -137.67943 128.18382 29.185379 -141.37814 126.678215 29.020863 -134.35982 93.13336 33.489697 -124.55591 60.602432 14.816371 -133.98071 129.68944 9.777445 -127.71809 96.01666 10.786954 -117.651825 62.47003 23.153088 -141.19054 151.6109 24.305302 -144.70164 175.038 17.266321 -154.65805 187.0687 16.923513 -160.2482 192.2753 16.70242 -136.2883 179.94742 -2.6737003 -125.34972 174.59276 -6.334631 -137.37 189.09282 32.832634 -156.13356 173.43233 39.396088 -159.49802 150.0175 29.808804 -163.2119 136.49832
20.924553 -141.17111 129.05664 27.74056 -147.46968 128.41895 27.01618 -142.8708 95.63044 31.657888 -134.42679 62.452705 14.108543 -134.87256 129.69434 10.616818 -129.03954 97.20667 12.320635 -121.21592 63.07231 22.669708 -143.15298 151.8809 24.414865 -145.13486 174.70517 17.732645 -154.11697 188.05463 17.783598 -160.50027 191.69962 15.661085 -137.93282 178.47769 -2.6813583 -129.57701 171.676 -6.155735 -141.37657 186.6751 31.695194 -156.24222 173.264 37.358013 -159.88132 149.71437 27.44991 -163.60753 137.1156
20.087738 -139.19614 127.38446 27.465933 -144.60031 126.40584 26.842806 -139.65051 92.21899 30.766872 -131.73758 59.347973 12.709543 -133.79196 128.36308 9.845069 -126.50015 94.88699 11.383839 -117.57341 61.761852 22.226347 -142.18867 150.99982 24.364956 -145.18121 174.61517 15.729645 -154.81715 189.52664 16.345543 -158.0171 193.75333 17.465347 -136.64223 178.28108 -0.11880684 -127.56513 170.73279 -7.846981 -137.90698 186.95345 32.515316 -156.31033 172.6479 40.5765 -159.81328 149.68617 33.655754 -162.70842 136.77267
20.761597 -140.98636 128.05772 28.417606 -146.49551 126.66744 27.99733 -141.14693 92.20232 32.419594 -132.61499 58.95827 13.105589 -135.4772 129.44801 9.649638 -128.69249 97.102615 11.141321 -119.82657 63.1184 22.525555 -143.26837 151.30055 24.289513 -145.55037 174.54338 14.090886 -155.81308 187.42891 16.069202 -160.81625 192.8026 20.924583 -134.24924 180.48543 5.965019 -118.233154 177.13847 -5.7002983 -129.85728 189.18423 33.76357 -155.95363 171.87973 42.271324 -157.2188 148.47514 36.301613 -159.7416 136.01921
21.431782 -139.497 125.15672 29.516388 -143.08118 123.895424 30.209415 -135.98984 88.79224 34.425858 -126.25846 55.650723 13.347176 -135.91281 126.41802 10.572978 -128.76134 92.618935 11.545984 -119.29467 57.61157 22.811985 -142.48032 149.84355 24.192188 -145.46365 174.53038 15.160739 -157.13007 186.79436 17.380299 -163.92249 190.1645 17.090496 -135.68399 182.36386 0.18077469 -121.94738 176.13913 -6.8005943 -134.23865 187.20569 35.10146 -154.21556 172.18889 42.839977 -152.82713 148.58301 35.79957 -155.31451 134.50983
19.888233 -140.38657 126.059586 29.23019 -143.99538 124.61315 28.71462 -139.44818 89.457245 31.895401 -131.60793 55.247887 10.546278 -136.77776 127.50601 6.5121574 -131.07286 94.307465 7.733861 -121.5972 58.978394 21.95332 -142.70316 150.34985 24.018406 -145.01974 174.6401 14.883142 -155.90154 187.83267 16.403673 -161.32494 193.17874 21.302103 -135.35472 183.0068 7.401948 -117.75904 176.51877 -2.399866 -126.95778 187.80531 34.902397 -153.4182 171.03172 42.37819 -148.53777 147.1308 36.06227 -149.73482 131.7436
19.286037 -139.70523 126.369644 27.581518 -139.35707 124.90715 28.347227 -135.46733 88.87569 30.498144 -127.83895 54.195625 10.990555 -140.05339 127.83213 7.2750435 -134.54494 95.75521 6.471918 -125.376854 60.752056 21.590878 -142.15909 150.5513 23.895718 -144.61293 174.73297 14.258064 -156.47392 188.73032 16.995214 -161.00859 193.55188 20.585815 -134.78615 182.82681 6.8017416 -116.492966 178.77231 -2.5405636 -125.724434 190.17043 36.574356 -152.15154 170.79543 44.11448 -145.26526 147.24916 37.094707 -145.25331 130.88333
20.641949 -140.41826 127.25649 28.633705 -140.89188 125.73537 29.574629 -138.31346 89.330086 32.247868 -131.04858 55.181274 12.650192 -139.94464 128.77762 10.167064 -135.16194 96.48858 10.247672 -127.1485 61.724213 22.170633 -142.36276 151.05281 23.699318 -144.30728 174.84912 13.51961 -156.85562 188.6109 14.73569 -160.79813 192.88892 19.818916 -134.14586 182.64737 5.392576 -116.22278 178.49022 -3.8407307 -123.73768 189.64981 37.482677 -150.45111 171.90146 46.66111 -144.3471 149.49591 40.312695 -147.7146 134.28177
20.493628 -140.41916 128.04338 28.659195 -141.07481 126.2752 30.405602 -139.17607 90.609726 33.593426 -132.19337 56.4908 12.32806 -139.7635 129.81155 8.830413 -135.93242 98.62916 9.428161 -128.08464 64.38845 21.991877 -142.29678 151.47487 23.490126 -144.1744 174.90636 13.029767 -155.51648 188.8456 15.214692 -160.54474 193.48979 19.639946 -135.01454 181.80165 3.8108234 -116.42279 178.9655 -3.927517 -119.87117 191.57777 38.66763 -149.28558 172.12566 48.020966 -141.63562 150.19365 42.282623 -145.70885 134.0644
20.42504 -140.65256 129.11787 28.859627 -141.41768 127.001976 30.372787 -140.60864 92.21096 33.374344 -133.96289 57.99434 11.990452 -139.88745 131.23378 8.671684 -136.59268 100.28717 10.295993 -128.84427 67.00493 21.924175 -142.4302 152.05746 23.42331 -144.20784 174.99704 12.765097 -156.8452 187.7436 15.156359 -161.20103 190.90031 18.530075 -133.63263 181.7657 0.18958664 -114.85576 184.74583 -8.107166 -115.959015 193.31863 37.737778 -149.7959 172.04082 46.138443 -142.9324 149.95471 39.80136 -146.61736 133.65062
21.437767 -141.69594 129.56708 29.236301 -143.4438 127.45326 30.892782 -142.68011 92.67414 34.486347 -135.73683 58.81017 13.639234 -139.94807 131.6809 10.240918 -136.93657 100.23357 12.612939 -130.55638 66.98178 22.391098 -143.00142 152.31679 23.344429 -144.3069 175.0665 12.879063 -156.27556 187.78242 14.913759 -160.54024 192.17314 17.248642 -132.77594 181.05959 -0.70321274 -117.60531 180.30295 -10.707638 -122.055176 190.71437 37.894077 -149.1594 172.43658 45.665817 -142.04762 150.73209 40.59039 -146.28165 132.93912
20.810358 -139.90082 129.02208 28.611946 -142.98117 126.09132 30.865026 -139.5055 90.63167 34.78224 -130.05643 57.59634 13.00877 -136.82048 131.95284 10.103083 -130.82109 101.06076 12.47026 -122.03698 67.71393 22.05135 -142.27057 152.04868 23.29234 -144.64034 175.07527 12.961125 -154.68295 188.98984 14.976733 -158.42648 192.38031 18.38463 -134.49324 180.50235 1.5774612 -121.55935 179.04053 -7.6550655 -126.54468 192.31104 37.66487 -149.18913 172.64014 44.9216 -143.96983 150.55597 40.27223 -150.2755 132.97176
21.122385 -137.4992 128.48346 29.989834 -140.35822 126.41656 31.828514 -135.20706 91.255714 35.781677 -124.75994 58.352108 12.254936 -134.64018 130.55037 9.562879 -126.6613 100.08118 12.27268 -115.24591 66.18846 22.171385 -141.22336 151.78552 23.220385 -144.94751 175.08757 16.681644 -156.5051 189.36714 17.678078 -159.43338 191.53038 14.145609 -135.46771 179.07881 -6.876951 -128.71402 178.0042 -10.984652 -137.74686 195.55995 38.6048 -148.71442 172.9835 46.668404 -144.12915 150.96858 42.32191 -152.10449 134.49432
19.719662 -137.71262 127.03253 28.976816 -140.29976 124.9863 29.188253 -133.44429 88.73912 32.529686 -123.30325 54.72081 10.462507 -135.12546 129.07877 7.8657722 -126.27323 96.67347 8.936798 -113.5982 61.82342 21.451057 -141.5222 151.17474 23.182451 -145.33179 175.31696 17.454918 -156.72908 189.30486 18.94603 -157.5493 192.26106 13.357896 -137.01057 178.51682 -4.6538696 -130.97348 170.93054 -9.448938 -140.58694 183.61115 39.065212 -148.65 173.77141 47.41689 -146.6106 151.27806 43.32135 -156.46603 133.9606
19.407978 -139.0452 126.49896 28.606394 -141.17206 124.61889 28.974998 -134.1486 88.16255 32.412586 -124.44218 54.267868 10.209562 -136.91833 128.37903 7.985162 -126.71937 96.032745 8.934945 -113.40817 62.19354 21.28461 -142.34273 150.95314 23.161243 -145.64026 175.40732 18.958437 -157.89243 190.58449 19.100737 -157.76132 192.74611 17.150791 -136.74284 178.27762 -2.391632 -128.59515 173.54277 -9.294792 -136.14732 190.4 37.384193 -151.24577 174.74979 46.678772 -151.04451 151.65817 41.059868 -162.86656 136.14255
19.518774 -142.44513 127.70173 27.392614 -145.52092 126.2935 28.186054 -139.12961 90.59678 31.924854 -131.02847 57.53051 11.644935 -139.36934 129.10995 8.847181 -131.64844 96.32943 9.808722 -120.5091 62.04901 21.38553 -144.18953 151.58765 23.252287 -145.93393 175.47356 18.576084 -159.30185 189.68527 19.99273 -158.71176 192.07855 12.3039255 -138.14543 179.00748 -8.122004 -133.51169 171.83955 -11.573328 -143.30089 184.54678 37.10766 -152.58026 174.94586 47.151062 -153.6528 151.52948 42.361664 -164.36926 135.46872
20.451406 -142.4413 126.910934 27.875956 -144.06264 125.79915 28.297533 -137.97528 89.93439 31.37645 -130.2973 55.870518 13.026857 -140.81996 128.02272 10.34138 -134.38734 93.886826 11.252259 -124.2222 59.073967 21.870977 -144.28185 151.27203 23.290548 -146.12239 175.63315 18.09048 -160.7807 189.19272 19.852966 -160.32153 191.20584 11.002111 -141.75114 178.194 -8.710865 -139.98817 164.66399 -10.870062 -155.23851 175.7363 38.093018 -150.03978 175.2029 48.690536 -148.87625 153.23183 47.897305 -157.66177 135.3917
19.264696 -143.71834 125.89549 28.043411 -144.27866 125.4394 28.28817 -138.52615 89.702675 30.916609 -131.26259 55.260567 10.485982 -143.15802 126.35159 7.72756 -137.0779 91.867355 7.36716 -126.95562 56.002815 21.305386 -144.91394 150.85529 23.346077 -146.10954 175.81506 19.265812 -162.50404 188.38531 19.721195 -162.44154 190.99146 12.350946 -140.05641 179.33621 -2.7773342 -133.11029 163.37708 -6.4640884 -149.90541 176.39893 37.964905 -151.37753 176.1246 50.669533 -154.62036 153.74521 45.815655 -165.3052 140.87436
19.01086 -143.5008 125.263626 27.453379 -145.42114 124.381096 27.721695 -140.1641 87.525375 31.042122 -133.54144 52.614918 10.568342 -141.58044 126.14616 7.9685106 -135.74077 91.17642 7.738863 -125.83363 55.090134 21.133734 -144.66647 150.63547 23.256607 -145.83215 176.0073 19.831942 -161.33699 189.45665 21.183264 -160.9622 190.27248 12.888958 -138.95085 178.7959 -2.076147 -131.87567 161.8386 -7.2819405 -148.30164 175.43893 40.524597 -148.15294 175.19121 60.075676 -154.0495 158.29843 57.44638 -168.05331 150.31883
18.412308 -142.81244 124.60576 28.531263 -145.28885 122.53373 29.87542 -140.49933 84.40174 32.685234 -132.79092 49.38015 8.293352 -140.33603 126.67779 6.394491 -134.41815 92.352455 6.984973 -123.73127 55.863567 20.802322 -144.12871 150.40376 23.192335 -145.44498 176.20177 20.685102 -160.9984 190.059 21.781519 -159.97633 191.13997 10.440932 -141.26572 177.53891 -4.5932865 -138.26428 161.11813 -6.9214325 -153.95282 169.85272 39.62052 -147.64163 176.47052 58.10853 -150.92737 159.7659 59.24575 -167.50166 151.35709
19.108467 -142.82468 126.022156 28.524817 -144.88652 124.391396 30.130466 -140.2195 87.71555 33.23463 -131.54765 53.277847 9.692117 -140.76282 127.652916 7.005356 -134.66187 93.49195 6.8487167 -123.68467 57.24575 21.037708 -144.04382 151.1542 22.966948 -145.26299 176.28627 23.200941 -162.2972 190.52925 22.735369 -161.14107 195.46233 8.074997 -146.6807 176.54053 -0.8417721 -148.6989 157.39369 7.4828186 -166.83978 165.87769 38.826668 -147.19862 176.31172 56.810783 -151.88751 158.7572 55.597347 -167.96027 158.0453
17.632912 -142.3393 128.02768 27.474297 -146.13033 125.45098 27.488466 -141.9979 88.891235 30.55219 -134.14658 54.450348 7.791527 -138.54828 130.60439 6.389015 -131.58151 96.97685 6.6656723 -120.30607 61.31532 20.246893 -143.89917 152.20715 22.860874 -145.45903 176.38661 23.894566 -163.0007 190.74475 23.72388 -161.61746 195.14984 5.342354 -145.58638 178.69398 -5.5895786 -147.1985 161.38135 5.941044 -162.60843 163.87962 37.436142 -150.62112 176.73457 51.978455 -154.25847 158.11862 46.12993 -165.8959 152.86049
17.542301 -142.13388 127.31619 27.679014 -144.19148 125.04169 27.197334 -139.75119 88.02 29.578209 -132.00873 52.230717 7.40559 -140.0763 129.5907 6.171732 -134.46002 95.189156 7.525811 -123.95554 58.976833 20.061499 -143.77463 151.88869 22.580696 -145.41536 176.46118 25.418001 -163.21765 190.85217 24.690279 -161.60321 195.29056 6.0600376 -147.02008 179.63683 -6.3507805 -145.39243 161.72433 5.3879757 -159.92188 157.10588 36.071327 -139.32538 177.0832 55.75154 -139.58304 163.99242 66.620026 -156.28534 166.30936
16.596733 -137.04369 128.9744 28.079294 -135.98647 127.67184 28.336628 -129.19548 90.59723 27.53151 -118.36872 55.637215 5.11417 -138.1009 130.27696 2.5568352 -132.2645 97.829315 1.8446712 -120.04016 62.9606 19.430893 -141.36687 152.76904 22.265053 -145.69005 176.5637 25.165722 -163.94144 189.88312 24.408245 -163.45502 195.03317 4.5660152 -148.08223 179.18839 -8.268721 -141.13226 162.46503 0.5184994 -147.79839 149.67764 38.699497 -140.84856 176.33876 56.456436 -140.91388 162.07385 59.37333 -157.7155 162.6577
